<?xml version="1.0"?>
<opencv_storage>
<cascade>
  <stageType>BOOST</stageType>
  <featureType>HAAR</featureType>
  <height>24</height>
  <width>36</width>
  <stageParams>
    <boostType>GAB</boostType>
    <minHitRate>9.9500000476837158e-01</minHitRate>
    <maxFalseAlarm>5.0000000000000000e-01</maxFalseAlarm>
    <weightTrimRate>9.4999998807907104e-01</weightTrimRate>
    <maxDepth>1</maxDepth>
    <maxWeakCount>100</maxWeakCount></stageParams>
  <featureParams>
    <maxCatCount>0</maxCatCount>
    <featSize>1</featSize>
    <mode>BASIC</mode></featureParams>
  <stageNum>15</stageNum>
  <stages>
    <!-- stage 0 -->
    <_>
      <maxWeakCount>2</maxWeakCount>
      <stageThreshold>-2.4489803612232208e-01</stageThreshold>
      <weakClassifiers>
        <_>
          <internalNodes>
            0 -1 23 -1.5403393656015396e-02</internalNodes>
          <leafValues>
            1. -8.4905660152435303e-01</leafValues></_>
        <_>
          <internalNodes>
            0 -1 28 -9.4704613729845732e-05</internalNodes>
          <leafValues>
            -1. 6.0415858030319214e-01</leafValues></_></weakClassifiers></_>
    <!-- stage 1 -->
    <_>
      <maxWeakCount>2</maxWeakCount>
      <stageThreshold>-8.7702222168445587e-02</stageThreshold>
      <weakClassifiers>
        <_>
          <internalNodes>
            0 -1 11 -5.2462145686149597e-02</internalNodes>
          <leafValues>
            1. -8.1481480598449707e-01</leafValues></_>
        <_>
          <internalNodes>
            0 -1 29 2.7935369871556759e-04</internalNodes>
          <leafValues>
            7.2711259126663208e-01 -9.6208387613296509e-01</leafValues></_></weakClassifiers></_>
    <!-- stage 2 -->
    <_>
      <maxWeakCount>2</maxWeakCount>
      <stageThreshold>-1.7109739780426025e-01</stageThreshold>
      <weakClassifiers>
        <_>
          <internalNodes>
            0 -1 13 -4.9266096204519272e-02</internalNodes>
          <leafValues>
            1. -8.4905660152435303e-01</leafValues></_>
        <_>
          <internalNodes>
            0 -1 30 -2.0199619757477194e-04</internalNodes>
          <leafValues>
            -1. 6.7795920372009277e-01</leafValues></_></weakClassifiers></_>
    <!-- stage 3 -->
    <_>
      <maxWeakCount>2</maxWeakCount>
      <stageThreshold>-2.5653639435768127e-01</stageThreshold>
      <weakClassifiers>
        <_>
          <internalNodes>
            0 -1 6 7.3774121701717377e-02</internalNodes>
          <leafValues>
            -8.1481480598449707e-01 1.</leafValues></_>
        <_>
          <internalNodes>
            0 -1 27 5.5443972814828157e-04</internalNodes>
          <leafValues>
            5.5827844142913818e-01 -1.</leafValues></_></weakClassifiers></_>
    <!-- stage 4 -->
    <_>
      <maxWeakCount>1</maxWeakCount>
      <stageThreshold>6.8000000715255737e-01</stageThreshold>
      <weakClassifiers>
        <_>
          <internalNodes>
            0 -1 9 2.9699601233005524e-02</internalNodes>
          <leafValues>
            6.8000000715255737e-01 -1.</leafValues></_></weakClassifiers></_>
    <!-- stage 5 -->
    <_>
      <maxWeakCount>2</maxWeakCount>
      <stageThreshold>-2.7586051821708679e-01</stageThreshold>
      <weakClassifiers>
        <_>
          <internalNodes>
            0 -1 22 1.3526351722248364e-05</internalNodes>
          <leafValues>
            -9.5555555820465088e-01 6.0000002384185791e-01</leafValues></_>
        <_>
          <internalNodes>
            0 -1 25 -1.8239524215459824e-02</internalNodes>
          <leafValues>
            8.2362872362136841e-01 -8.7586051225662231e-01</leafValues></_></weakClassifiers></_>
    <!-- stage 6 -->
    <_>
      <maxWeakCount>2</maxWeakCount>
      <stageThreshold>-6.7019216716289520e-02</stageThreshold>
      <weakClassifiers>
        <_>
          <internalNodes>
            0 -1 17 8.9263021945953369e-02</internalNodes>
          <leafValues>
            -8.1481480598449707e-01 1.</leafValues></_>
        <_>
          <internalNodes>
            0 -1 20 1.3526351722248364e-05</internalNodes>
          <leafValues>
            -8.2744169235229492e-01 7.4779558181762695e-01</leafValues></_></weakClassifiers></_>
    <!-- stage 7 -->
    <_>
      <maxWeakCount>2</maxWeakCount>
      <stageThreshold>-2.2950619459152222e-01</stageThreshold>
      <weakClassifiers>
        <_>
          <internalNodes>
            0 -1 8 8.7384857237339020e-02</internalNodes>
          <leafValues>
            -7.7777779102325439e-01 8.7500000000000000e-01</leafValues></_>
        <_>
          <internalNodes>
            0 -1 3 6.1992341652512550e-03</internalNodes>
          <leafValues>
            5.4827159643173218e-01 -9.5692473649978638e-01</leafValues></_></weakClassifiers></_>
    <!-- stage 8 -->
    <_>
      <maxWeakCount>2</maxWeakCount>
      <stageThreshold>1.7325781285762787e-01</stageThreshold>
      <weakClassifiers>
        <_>
          <internalNodes>
            0 -1 5 1.3565903902053833e-01</internalNodes>
          <leafValues>
            -7.1929824352264404e-01 1.</leafValues></_>
        <_>
          <internalNodes>
            0 -1 18 -5.0234710797667503e-03</internalNodes>
          <leafValues>
            8.9255607128143311e-01 -6.9957977533340454e-01</leafValues></_></weakClassifiers></_>
    <!-- stage 9 -->
    <_>
      <maxWeakCount>2</maxWeakCount>
      <stageThreshold>-7.3256917297840118e-02</stageThreshold>
      <weakClassifiers>
        <_>
          <internalNodes>
            0 -1 14 -6.4371660351753235e-02</internalNodes>
          <leafValues>
            1. -7.5000000000000000e-01</leafValues></_>
        <_>
          <internalNodes>
            0 -1 1 -1.1394052766263485e-02</internalNodes>
          <leafValues>
            -9.6271789073944092e-01 6.7674309015274048e-01</leafValues></_></weakClassifiers></_>
    <!-- stage 10 -->
    <_>
      <maxWeakCount>2</maxWeakCount>
      <stageThreshold>-1.1024809628725052e-01</stageThreshold>
      <weakClassifiers>
        <_>
          <internalNodes>
            0 -1 10 -7.0091128349304199e-02</internalNodes>
          <leafValues>
            1. -7.8181821107864380e-01</leafValues></_>
        <_>
          <internalNodes>
            0 -1 7 -1.6437805024906993e-03</internalNodes>
          <leafValues>
            -1. 6.7157006263732910e-01</leafValues></_></weakClassifiers></_>
    <!-- stage 11 -->
    <_>
      <maxWeakCount>2</maxWeakCount>
      <stageThreshold>-2.2930757701396942e-01</stageThreshold>
      <weakClassifiers>
        <_>
          <internalNodes>
            0 -1 16 -1.0807478427886963e-01</internalNodes>
          <leafValues>
            1. -6.6101694107055664e-01</leafValues></_>
        <_>
          <internalNodes>
            0 -1 2 -1.2363758287392557e-04</internalNodes>
          <leafValues>
            -1. 4.3170937895774841e-01</leafValues></_></weakClassifiers></_>
    <!-- stage 12 -->
    <_>
      <maxWeakCount>2</maxWeakCount>
      <stageThreshold>-1.9345228374004364e-01</stageThreshold>
      <weakClassifiers>
        <_>
          <internalNodes>
            0 -1 12 1.7169331014156342e-01</internalNodes>
          <leafValues>
            -6.8965518474578857e-01 1.</leafValues></_>
        <_>
          <internalNodes>
            0 -1 0 -2.2477176971733570e-03</internalNodes>
          <leafValues>
            -1. 4.9620288610458374e-01</leafValues></_></weakClassifiers></_>
    <!-- stage 13 -->
    <_>
      <maxWeakCount>3</maxWeakCount>
      <stageThreshold>-9.1399526596069336e-01</stageThreshold>
      <weakClassifiers>
        <_>
          <internalNodes>
            0 -1 21 -9.1866747243329883e-04</internalNodes>
          <leafValues>
            -8.2978725433349609e-01 4.7826087474822998e-01</leafValues></_>
        <_>
          <internalNodes>
            0 -1 19 1.9520092010498047e-01</internalNodes>
          <leafValues>
            -6.0194140672683716e-01 7.6459211111068726e-01</leafValues></_>
        <_>
          <internalNodes>
            0 -1 15 6.9315836299210787e-04</internalNodes>
          <leafValues>
            5.1773333549499512e-01 -8.1130474805831909e-01</leafValues></_></weakClassifiers></_>
    <!-- stage 14 -->
    <_>
      <maxWeakCount>3</maxWeakCount>
      <stageThreshold>-5.1589447259902954e-01</stageThreshold>
      <weakClassifiers>
        <_>
          <internalNodes>
            0 -1 24 3.2378301024436951e-02</internalNodes>
          <leafValues>
            -6.6101694107055664e-01 1.</leafValues></_>
        <_>
          <internalNodes>
            0 -1 26 1.1569384951144457e-03</internalNodes>
          <leafValues>
            9.3027055263519287e-01 -4.6195313334465027e-01</leafValues></_>
        <_>
          <internalNodes>
            0 -1 4 -6.1619356274604797e-02</internalNodes>
          <leafValues>
            6.2451273202896118e-01 -7.8514808416366577e-01</leafValues></_></weakClassifiers></_></stages>
  <features>
    <_>
      <rects>
        <_>
          0 0 21 2 -1.</_>
        <_>
          7 0 7 2 3.</_></rects>
      <tilted>0</tilted></_>
    <_>
      <rects>
        <_>
          0 2 27 7 -1.</_>
        <_>
          9 2 9 7 3.</_></rects>
      <tilted>0</tilted></_>
    <_>
      <rects>
        <_>
          0 8 14 8 -1.</_>
        <_>
          7 8 7 8 2.</_></rects>
      <tilted>0</tilted></_>
    <_>
      <rects>
        <_>
          1 0 33 3 -1.</_>
        <_>
          12 0 11 3 3.</_></rects>
      <tilted>0</tilted></_>
    <_>
      <rects>
        <_>
          2 0 34 22 -1.</_>
        <_>
          19 0 17 22 2.</_></rects>
      <tilted>0</tilted></_>
    <_>
      <rects>
        <_>
          5 8 30 5 -1.</_>
        <_>
          15 8 10 5 3.</_></rects>
      <tilted>0</tilted></_>
    <_>
      <rects>
        <_>
          5 9 27 5 -1.</_>
        <_>
          14 9 9 5 3.</_></rects>
      <tilted>0</tilted></_>
    <_>
      <rects>
        <_>
          6 1 24 1 -1.</_>
        <_>
          14 1 8 1 3.</_></rects>
      <tilted>0</tilted></_>
    <_>
      <rects>
        <_>
          6 1 13 18 -1.</_>
        <_>
          6 7 13 6 3.</_></rects>
      <tilted>0</tilted></_>
    <_>
      <rects>
        <_>
          6 8 25 16 -1.</_>
        <_>
          6 16 25 8 2.</_></rects>
      <tilted>0</tilted></_>
    <_>
      <rects>
        <_>
          7 0 12 13 -1.</_>
        <_>
          11 0 4 13 3.</_></rects>
      <tilted>0</tilted></_>
    <_>
      <rects>
        <_>
          7 6 12 9 -1.</_>
        <_>
          11 6 4 9 3.</_></rects>
      <tilted>0</tilted></_>
    <_>
      <rects>
        <_>
          7 7 18 7 -1.</_>
        <_>
          13 7 6 7 3.</_></rects>
      <tilted>0</tilted></_>
    <_>
      <rects>
        <_>
          8 0 12 17 -1.</_>
        <_>
          12 0 4 17 3.</_></rects>
      <tilted>0</tilted></_>
    <_>
      <rects>
        <_>
          8 8 12 6 -1.</_>
        <_>
          12 8 4 6 3.</_></rects>
      <tilted>0</tilted></_>
    <_>
      <rects>
        <_>
          10 14 16 8 -1.</_>
        <_>
          10 14 8 4 2.</_>
        <_>
          18 18 8 4 2.</_></rects>
      <tilted>0</tilted></_>
    <_>
      <rects>
        <_>
          11 0 24 19 -1.</_>
        <_>
          19 0 8 19 3.</_></rects>
      <tilted>0</tilted></_>
    <_>
      <rects>
        <_>
          11 9 15 6 -1.</_>
        <_>
          16 9 5 6 3.</_></rects>
      <tilted>0</tilted></_>
    <_>
      <rects>
        <_>
          12 2 15 12 -1.</_>
        <_>
          12 6 15 4 3.</_></rects>
      <tilted>0</tilted></_>
    <_>
      <rects>
        <_>
          12 3 12 12 -1.</_>
        <_>
          16 3 4 12 3.</_></rects>
      <tilted>0</tilted></_>
    <_>
      <rects>
        <_>
          15 1 2 9 -1.</_>
        <_>
          16 1 1 9 2.</_></rects>
      <tilted>0</tilted></_>
    <_>
      <rects>
        <_>
          15 8 1 16 -1.</_>
        <_>
          15 16 1 8 2.</_></rects>
      <tilted>0</tilted></_>
    <_>
      <rects>
        <_>
          16 2 2 20 -1.</_>
        <_>
          17 2 1 20 2.</_></rects>
      <tilted>0</tilted></_>
    <_>
      <rects>
        <_>
          16 11 15 3 -1.</_>
        <_>
          21 11 5 3 3.</_></rects>
      <tilted>0</tilted></_>
    <_>
      <rects>
        <_>
          17 9 4 10 -1.</_>
        <_>
          17 9 2 5 2.</_>
        <_>
          19 14 2 5 2.</_></rects>
      <tilted>0</tilted></_>
    <_>
      <rects>
        <_>
          17 9 12 6 -1.</_>
        <_>
          21 9 4 6 3.</_></rects>
      <tilted>0</tilted></_>
    <_>
      <rects>
        <_>
          18 2 1 21 -1.</_>
        <_>
          18 9 1 7 3.</_></rects>
      <tilted>0</tilted></_>
    <_>
      <rects>
        <_>
          23 7 10 16 -1.</_>
        <_>
          28 7 5 16 2.</_></rects>
      <tilted>0</tilted></_>
    <_>
      <rects>
        <_>
          26 5 7 8 -1.</_>
        <_>
          26 9 7 4 2.</_></rects>
      <tilted>0</tilted></_>
    <_>
      <rects>
        <_>
          31 4 1 10 -1.</_>
        <_>
          31 9 1 5 2.</_></rects>
      <tilted>0</tilted></_>
    <_>
      <rects>
        <_>
          31 4 3 10 -1.</_>
        <_>
          31 9 3 5 2.</_></rects>
      <tilted>0</tilted></_></features></cascade>
</opencv_storage>
